digraph Tree {
node [shape=box] ;
0 [label="X[0] <= 3.153\nmse = 0.461\nsamples = 200\nvalue = 0.141"] ;
1 [label="X[0] <= 2.661\nmse = 0.103\nsamples = 128\nvalue = 0.59"] ;
0 -> 1 [labeldistance=2.5, labelangle=45, headlabel="True"] ;
2 [label="X[0] <= 0.572\nmse = 0.075\nsamples = 99\nvalue = 0.701"] ;
1 -> 2 ;
3 [label="X[0] <= 0.234\nmse = 0.026\nsamples = 22\nvalue = 0.276"] ;
2 -> 3 ;
4 [label="X[0] <= 0.13\nmse = 0.002\nsamples = 9\nvalue = 0.102"] ;
3 -> 4 ;
5 [label="X[0] <= 0.076\nmse = 0.001\nsamples = 7\nvalue = 0.081"] ;
4 -> 5 ;
6 [label="X[0] <= 0.041\nmse = 0.0\nsamples = 2\nvalue = 0.041"] ;
5 -> 6 ;
7 [label="mse = 0.0\nsamples = 1\nvalue = 0.023"] ;
6 -> 7 ;
8 [label="mse = 0.0\nsamples = 1\nvalue = 0.059"] ;
6 -> 8 ;
9 [label="X[0] <= 0.098\nmse = 0.0\nsamples = 5\nvalue = 0.097"] ;
5 -> 9 ;
10 [label="X[0] <= 0.095\nmse = 0.0\nsamples = 3\nvalue = 0.094"] ;
9 -> 10 ;
11 [label="X[0] <= 0.093\nmse = 0.0\nsamples = 2\nvalue = 0.093"] ;
10 -> 11 ;
12 [label="mse = 0.0\nsamples = 1\nvalue = 0.092"] ;
11 -> 12 ;
13 [label="mse = 0.0\nsamples = 1\nvalue = 0.094"] ;
11 -> 13 ;
14 [label="mse = -0.0\nsamples = 1\nvalue = 0.096"] ;
10 -> 14 ;
15 [label="X[0] <= 0.101\nmse = 0.0\nsamples = 2\nvalue = 0.101"] ;
9 -> 15 ;
16 [label="mse = 0.0\nsamples = 1\nvalue = 0.1"] ;
15 -> 16 ;
17 [label="mse = 0.0\nsamples = 1\nvalue = 0.101"] ;
15 -> 17 ;
18 [label="X[0] <= 0.178\nmse = 0.0\nsamples = 2\nvalue = 0.177"] ;
4 -> 18 ;
19 [label="mse = 0.0\nsamples = 1\nvalue = 0.159"] ;
18 -> 19 ;
20 [label="mse = -0.0\nsamples = 1\nvalue = 0.195"] ;
18 -> 20 ;
21 [label="X[0] <= 0.395\nmse = 0.007\nsamples = 13\nvalue = 0.396"] ;
3 -> 21 ;
22 [label="X[0] <= 0.311\nmse = 0.001\nsamples = 6\nvalue = 0.309"] ;
21 -> 22 ;
23 [label="X[0] <= 0.281\nmse = 0.0\nsamples = 3\nvalue = 0.284"] ;
22 -> 23 ;
24 [label="mse = 0.0\nsamples = 1\nvalue = 0.268"] ;
23 -> 24 ;
25 [label="X[0] <= 0.296\nmse = 0.0\nsamples = 2\nvalue = 0.291"] ;
23 -> 25 ;
26 [label="mse = 0.0\nsamples = 1\nvalue = 0.286"] ;
25 -> 26 ;
27 [label="mse = 0.0\nsamples = 1\nvalue = 0.297"] ;
25 -> 27 ;
28 [label="X[0] <= 0.333\nmse = 0.0\nsamples = 3\nvalue = 0.334"] ;
22 -> 28 ;
29 [label="mse = 0.0\nsamples = 1\nvalue = 0.315"] ;
28 -> 29 ;
30 [label="X[0] <= 0.351\nmse = 0.0\nsamples = 2\nvalue = 0.343"] ;
28 -> 30 ;
31 [label="mse = 0.0\nsamples = 1\nvalue = 0.339"] ;
30 -> 31 ;
32 [label="mse = 0.0\nsamples = 1\nvalue = 0.348"] ;
30 -> 32 ;
33 [label="X[0] <= 0.493\nmse = 0.001\nsamples = 7\nvalue = 0.471"] ;
21 -> 33 ;
34 [label="X[0] <= 0.453\nmse = 0.0\nsamples = 4\nvalue = 0.451"] ;
33 -> 34 ;
35 [label="mse = 0.0\nsamples = 1\nvalue = 0.422"] ;
34 -> 35 ;
36 [label="X[0] <= 0.475\nmse = 0.0\nsamples = 3\nvalue = 0.46"] ;
34 -> 36 ;
37 [label="mse = 0.0\nsamples = 1\nvalue = 0.453"] ;
36 -> 37 ;
38 [label="X[0] <= 0.483\nmse = 0.0\nsamples = 2\nvalue = 0.464"] ;
36 -> 38 ;
39 [label="mse = 0.0\nsamples = 1\nvalue = 0.462"] ;
38 -> 39 ;
40 [label="mse = -0.0\nsamples = 1\nvalue = 0.467"] ;
38 -> 40 ;
41 [label="X[0] <= 0.531\nmse = 0.0\nsamples = 3\nvalue = 0.498"] ;
33 -> 41 ;
42 [label="X[0] <= 0.506\nmse = 0.0\nsamples = 2\nvalue = 0.484"] ;
41 -> 42 ;
43 [label="mse = 0.0\nsamples = 1\nvalue = 0.48"] ;
42 -> 43 ;
44 [label="mse = -0.0\nsamples = 1\nvalue = 0.488"] ;
42 -> 44 ;
45 [label="mse = -0.0\nsamples = 1\nvalue = 0.524"] ;
41 -> 45 ;
46 [label="X[0] <= 0.841\nmse = 0.023\nsamples = 77\nvalue = 0.823"] ;
2 -> 46 ;
47 [label="X[0] <= 0.704\nmse = 0.004\nsamples = 14\nvalue = 0.641"] ;
46 -> 47 ;
48 [label="X[0] <= 0.632\nmse = 0.001\nsamples = 8\nvalue = 0.592"] ;
47 -> 48 ;
49 [label="X[0] <= 0.61\nmse = 0.0\nsamples = 4\nvalue = 0.566"] ;
48 -> 49 ;
50 [label="X[0] <= 0.597\nmse = 0.0\nsamples = 3\nvalue = 0.561"] ;
49 -> 50 ;
51 [label="X[0] <= 0.593\nmse = 0.0\nsamples = 2\nvalue = 0.558"] ;
50 -> 51 ;
52 [label="mse = 0.0\nsamples = 1\nvalue = 0.558"] ;
51 -> 52 ;
53 [label="mse = 0.0\nsamples = 1\nvalue = 0.559"] ;
51 -> 53 ;
54 [label="mse = 0.0\nsamples = 1\nvalue = 0.565"] ;
50 -> 54 ;
55 [label="mse = 0.0\nsamples = 1\nvalue = 0.58"] ;
49 -> 55 ;
56 [label="X[0] <= 0.668\nmse = 0.0\nsamples = 4\nvalue = 0.619"] ;
48 -> 56 ;
57 [label="X[0] <= 0.652\nmse = 0.0\nsamples = 2\nvalue = 0.607"] ;
56 -> 57 ;
58 [label="mse = 0.0\nsamples = 1\nvalue = 0.601"] ;
57 -> 58 ;
59 [label="mse = -0.0\nsamples = 1\nvalue = 0.612"] ;
57 -> 59 ;
60 [label="X[0] <= 0.684\nmse = 0.0\nsamples = 2\nvalue = 0.632"] ;
56 -> 60 ;
61 [label="mse = 0.0\nsamples = 1\nvalue = 0.627"] ;
60 -> 61 ;
62 [label="mse = 0.0\nsamples = 1\nvalue = 0.637"] ;
60 -> 62 ;
63 [label="X[0] <= 0.771\nmse = 0.001\nsamples = 6\nvalue = 0.705"] ;
47 -> 63 ;
64 [label="X[0] <= 0.732\nmse = 0.0\nsamples = 2\nvalue = 0.668"] ;
63 -> 64 ;
65 [label="mse = 0.0\nsamples = 1\nvalue = 0.657"] ;
64 -> 65 ;
66 [label="mse = 0.0\nsamples = 1\nvalue = 0.68"] ;
64 -> 66 ;
67 [label="X[0] <= 0.81\nmse = 0.0\nsamples = 4\nvalue = 0.724"] ;
63 -> 67 ;
68 [label="X[0] <= 0.801\nmse = 0.0\nsamples = 2\nvalue = 0.718"] ;
67 -> 68 ;
69 [label="mse = 0.0\nsamples = 1\nvalue = 0.714"] ;
68 -> 69 ;
70 [label="mse = -0.0\nsamples = 1\nvalue = 0.722"] ;
68 -> 70 ;
71 [label="X[0] <= 0.818\nmse = 0.0\nsamples = 2\nvalue = 0.73"] ;
67 -> 71 ;
72 [label="mse = 0.0\nsamples = 1\nvalue = 0.726"] ;
71 -> 72 ;
73 [label="mse = 0.0\nsamples = 1\nvalue = 0.734"] ;
71 -> 73 ;
74 [label="X[0] <= 2.252\nmse = 0.018\nsamples = 63\nvalue = 0.863"] ;
46 -> 74 ;
75 [label="X[0] <= 2.054\nmse = 0.005\nsamples = 52\nvalue = 0.912"] ;
74 -> 75 ;
76 [label="X[0] <= 1.128\nmse = 0.004\nsamples = 40\nvalue = 0.936"] ;
75 -> 76 ;
77 [label="X[0] <= 0.957\nmse = 0.002\nsamples = 10\nvalue = 0.842"] ;
76 -> 77 ;
78 [label="X[0] <= 0.887\nmse = 0.0\nsamples = 3\nvalue = 0.784"] ;
77 -> 78 ;
79 [label="mse = 0.0\nsamples = 1\nvalue = 0.757"] ;
78 -> 79 ;
80 [label="X[0] <= 0.923\nmse = 0.0\nsamples = 2\nvalue = 0.798"] ;
78 -> 80 ;
81 [label="mse = 0.0\nsamples = 1\nvalue = 0.793"] ;
80 -> 81 ;
82 [label="mse = 0.0\nsamples = 1\nvalue = 0.802"] ;
80 -> 82 ;
83 [label="X[0] <= 1.084\nmse = 0.001\nsamples = 7\nvalue = 0.867"] ;
77 -> 83 ;
84 [label="X[0] <= 1.022\nmse = 0.0\nsamples = 5\nvalue = 0.855"] ;
83 -> 84 ;
85 [label="X[0] <= 0.991\nmse = 0.0\nsamples = 2\nvalue = 0.837"] ;
84 -> 85 ;
86 [label="mse = 0.0\nsamples = 1\nvalue = 0.832"] ;
85 -> 86 ;
87 [label="mse = -0.0\nsamples = 1\nvalue = 0.841"] ;
85 -> 87 ;
88 [label="X[0] <= 1.047\nmse = 0.0\nsamples = 3\nvalue = 0.867"] ;
84 -> 88 ;
89 [label="mse = 0.0\nsamples = 1\nvalue = 0.865"] ;
88 -> 89 ;
90 [label="X[0] <= 1.051\nmse = 0.0\nsamples = 2\nvalue = 0.868"] ;
88 -> 90 ;
91 [label="mse = 0.0\nsamples = 1\nvalue = 0.867"] ;
90 -> 91 ;
92 [label="mse = -0.0\nsamples = 1\nvalue = 0.868"] ;
90 -> 92 ;
93 [label="X[0] <= 1.118\nmse = 0.0\nsamples = 2\nvalue = 0.899"] ;
83 -> 93 ;
94 [label="mse = 0.0\nsamples = 1\nvalue = 0.898"] ;
93 -> 94 ;
95 [label="mse = 0.0\nsamples = 1\nvalue = 0.9"] ;
93 -> 95 ;
96 [label="X[0] <= 1.88\nmse = 0.001\nsamples = 30\nvalue = 0.967"] ;
76 -> 96 ;
97 [label="X[0] <= 1.297\nmse = 0.001\nsamples = 26\nvalue = 0.975"] ;
96 -> 97 ;
98 [label="X[0] <= 1.206\nmse = 0.0\nsamples = 6\nvalue = 0.939"] ;
97 -> 98 ;
99 [label="X[0] <= 1.163\nmse = 0.0\nsamples = 2\nvalue = 0.918"] ;
98 -> 99 ;
100 [label="mse = 0.0\nsamples = 1\nvalue = 0.907"] ;
99 -> 100 ;
101 [label="mse = -0.0\nsamples = 1\nvalue = 0.928"] ;
99 -> 101 ;
102 [label="X[0] <= 1.255\nmse = 0.0\nsamples = 4\nvalue = 0.949"] ;
98 -> 102 ;
103 [label="X[0] <= 1.233\nmse = 0.0\nsamples = 2\nvalue = 0.943"] ;
102 -> 103 ;
104 [label="mse = 0.0\nsamples = 1\nvalue = 0.94"] ;
103 -> 104 ;
105 [label="mse = 0.0\nsamples = 1\nvalue = 0.947"] ;
103 -> 105 ;
106 [label="X[0] <= 1.269\nmse = 0.0\nsamples = 2\nvalue = 0.955"] ;
102 -> 106 ;
107 [label="mse = 0.0\nsamples = 1\nvalue = 0.954"] ;
106 -> 107 ;
108 [label="mse = 0.0\nsamples = 1\nvalue = 0.956"] ;
106 -> 108 ;
109 [label="X[0] <= 1.762\nmse = 0.0\nsamples = 20\nvalue = 0.985"] ;
97 -> 109 ;
110 [label="X[0] <= 1.382\nmse = 0.0\nsamples = 15\nvalue = 0.991"] ;
109 -> 110 ;
111 [label="X[0] <= 1.338\nmse = 0.0\nsamples = 3\nvalue = 0.972"] ;
110 -> 111 ;
112 [label="X[0] <= 1.325\nmse = 0.0\nsamples = 2\nvalue = 0.97"] ;
111 -> 112 ;
113 [label="mse = 0.0\nsamples = 1\nvalue = 0.969"] ;
112 -> 113 ;
114 [label="mse = 0.0\nsamples = 1\nvalue = 0.97"] ;
112 -> 114 ;
115 [label="mse = 0.0\nsamples = 1\nvalue = 0.976"] ;
111 -> 115 ;
116 [label="X[0] <= 1.466\nmse = 0.0\nsamples = 12\nvalue = 0.996"] ;
110 -> 116 ;
117 [label="X[0] <= 1.431\nmse = 0.0\nsamples = 3\nvalue = 0.991"] ;
116 -> 117 ;
118 [label="mse = 0.0\nsamples = 1\nvalue = 0.988"] ;
117 -> 118 ;
119 [label="X[0] <= 1.449\nmse = 0.0\nsamples = 2\nvalue = 0.993"] ;
117 -> 119 ;
120 [label="mse = 0.0\nsamples = 1\nvalue = 0.992"] ;
119 -> 120 ;
121 [label="mse = 0.0\nsamples = 1\nvalue = 0.993"] ;
119 -> 121 ;
122 [label="X[0] <= 1.66\nmse = 0.0\nsamples = 9\nvalue = 0.997"] ;
116 -> 122 ;
123 [label="X[0] <= 1.534\nmse = 0.0\nsamples = 8\nvalue = 0.998"] ;
122 -> 123 ;
124 [label="X[0] <= 1.5\nmse = 0.0\nsamples = 4\nvalue = 0.997"] ;
123 -> 124 ;
125 [label="X[0] <= 1.484\nmse = 0.0\nsamples = 3\nvalue = 0.996"] ;
124 -> 125 ;
126 [label="mse = 0.0\nsamples = 1\nvalue = 0.996"] ;
125 -> 126 ;
127 [label="X[0] <= 1.489\nmse = 0.0\nsamples = 2\nvalue = 0.997"] ;
125 -> 127 ;
128 [label="mse = 0.0\nsamples = 1\nvalue = 0.997"] ;
127 -> 128 ;
129 [label="mse = -0.0\nsamples = 1\nvalue = 0.997"] ;
127 -> 129 ;
130 [label="mse = -0.0\nsamples = 1\nvalue = 0.998"] ;
124 -> 130 ;
131 [label="X[0] <= 1.584\nmse = 0.0\nsamples = 4\nvalue = 1.0"] ;
123 -> 131 ;
132 [label="X[0] <= 1.568\nmse = 0.0\nsamples = 2\nvalue = 1.0"] ;
131 -> 132 ;
133 [label="mse = 0.0\nsamples = 1\nvalue = 1.0"] ;
132 -> 133 ;
134 [label="mse = -0.0\nsamples = 1\nvalue = 1.0"] ;
132 -> 134 ;
135 [label="X[0] <= 1.591\nmse = 0.0\nsamples = 2\nvalue = 1.0"] ;
131 -> 135 ;
136 [label="mse = 0.0\nsamples = 1\nvalue = 1.0"] ;
135 -> 136 ;
137 [label="mse = 0.0\nsamples = 1\nvalue = 1.0"] ;
135 -> 137 ;
138 [label="mse = 0.0\nsamples = 1\nvalue = 0.988"] ;
122 -> 138 ;
139 [label="X[0] <= 1.828\nmse = 0.0\nsamples = 5\nvalue = 0.969"] ;
109 -> 139 ;
140 [label="X[0] <= 1.809\nmse = 0.0\nsamples = 3\nvalue = 0.973"] ;
139 -> 140 ;
141 [label="X[0] <= 1.799\nmse = 0.0\nsamples = 2\nvalue = 0.974"] ;
140 -> 141 ;
142 [label="mse = 0.0\nsamples = 1\nvalue = 0.974"] ;
141 -> 142 ;
143 [label="mse = -0.0\nsamples = 1\nvalue = 0.974"] ;
141 -> 143 ;
144 [label="mse = 0.0\nsamples = 1\nvalue = 0.969"] ;
140 -> 144 ;
145 [label="X[0] <= 1.841\nmse = 0.0\nsamples = 2\nvalue = 0.964"] ;
139 -> 145 ;
146 [label="mse = 0.0\nsamples = 1\nvalue = 0.965"] ;
145 -> 146 ;
147 [label="mse = 0.0\nsamples = 1\nvalue = 0.963"] ;
145 -> 147 ;
148 [label="X[0] <= 1.95\nmse = 0.0\nsamples = 4\nvalue = 0.916"] ;
96 -> 148 ;
149 [label="mse = 0.0\nsamples = 1\nvalue = 0.941"] ;
148 -> 149 ;
150 [label="X[0] <= 2.014\nmse = 0.0\nsamples = 3\nvalue = 0.908"] ;
148 -> 150 ;
151 [label="X[0] <= 1.987\nmse = 0.0\nsamples = 2\nvalue = 0.915"] ;
150 -> 151 ;
152 [label="mse = 0.0\nsamples = 1\nvalue = 0.916"] ;
151 -> 152 ;
153 [label="mse = 0.0\nsamples = 1\nvalue = 0.913"] ;
151 -> 153 ;
154 [label="mse = 0.0\nsamples = 1\nvalue = 0.894"] ;
150 -> 154 ;
155 [label="X[0] <= 2.15\nmse = 0.001\nsamples = 12\nvalue = 0.834"] ;
75 -> 155 ;
156 [label="X[0] <= 2.096\nmse = 0.0\nsamples = 5\nvalue = 0.86"] ;
155 -> 156 ;
157 [label="X[0] <= 2.072\nmse = 0.0\nsamples = 2\nvalue = 0.877"] ;
156 -> 157 ;
158 [label="mse = 0.0\nsamples = 1\nvalue = 0.877"] ;
157 -> 158 ;
159 [label="mse = -0.0\nsamples = 1\nvalue = 0.876"] ;
157 -> 159 ;
160 [label="X[0] <= 2.132\nmse = 0.0\nsamples = 3\nvalue = 0.849"] ;
156 -> 160 ;
161 [label="X[0] <= 2.119\nmse = 0.0\nsamples = 2\nvalue = 0.854"] ;
160 -> 161 ;
162 [label="mse = 0.0\nsamples = 1\nvalue = 0.854"] ;
161 -> 162 ;
163 [label="mse = 0.0\nsamples = 1\nvalue = 0.853"] ;
161 -> 163 ;
164 [label="mse = 0.0\nsamples = 1\nvalue = 0.84"] ;
160 -> 164 ;
165 [label="X[0] <= 2.214\nmse = 0.0\nsamples = 7\nvalue = 0.816"] ;
155 -> 165 ;
166 [label="X[0] <= 2.176\nmse = 0.0\nsamples = 6\nvalue = 0.821"] ;
165 -> 166 ;
167 [label="X[0] <= 2.165\nmse = 0.0\nsamples = 2\nvalue = 0.829"] ;
166 -> 167 ;
168 [label="mse = 0.0\nsamples = 1\nvalue = 0.833"] ;
167 -> 168 ;
169 [label="mse = -0.0\nsamples = 1\nvalue = 0.825"] ;
167 -> 169 ;
170 [label="X[0] <= 2.187\nmse = 0.0\nsamples = 4\nvalue = 0.816"] ;
166 -> 170 ;
171 [label="X[0] <= 2.182\nmse = 0.0\nsamples = 2\nvalue = 0.819"] ;
170 -> 171 ;
172 [label="mse = 0.0\nsamples = 1\nvalue = 0.82"] ;
171 -> 172 ;
173 [label="mse = 0.0\nsamples = 1\nvalue = 0.817"] ;
171 -> 173 ;
174 [label="X[0] <= 2.19\nmse = 0.0\nsamples = 2\nvalue = 0.814"] ;
170 -> 174 ;
175 [label="mse = 0.0\nsamples = 1\nvalue = 0.816"] ;
174 -> 175 ;
176 [label="mse = 0.0\nsamples = 1\nvalue = 0.813"] ;
174 -> 176 ;
177 [label="mse = -0.0\nsamples = 1\nvalue = 0.787"] ;
165 -> 177 ;
178 [label="X[0] <= 2.479\nmse = 0.012\nsamples = 11\nvalue = 0.63"] ;
74 -> 178 ;
179 [label="X[0] <= 2.398\nmse = 0.002\nsamples = 6\nvalue = 0.724"] ;
178 -> 179 ;
180 [label="X[0] <= 2.294\nmse = 0.0\nsamples = 5\nvalue = 0.741"] ;
179 -> 180 ;
181 [label="X[0] <= 2.274\nmse = 0.0\nsamples = 2\nvalue = 0.763"] ;
180 -> 181 ;
182 [label="mse = 0.0\nsamples = 1\nvalue = 0.767"] ;
181 -> 182 ;
183 [label="mse = 0.0\nsamples = 1\nvalue = 0.758"] ;
181 -> 183 ;
184 [label="X[0] <= 2.319\nmse = 0.0\nsamples = 3\nvalue = 0.727"] ;
180 -> 184 ;
185 [label="mse = 0.0\nsamples = 1\nvalue = 0.741"] ;
184 -> 185 ;
186 [label="X[0] <= 2.337\nmse = 0.0\nsamples = 2\nvalue = 0.72"] ;
184 -> 186 ;
187 [label="mse = 0.0\nsamples = 1\nvalue = 0.724"] ;
186 -> 187 ;
188 [label="mse = -0.0\nsamples = 1\nvalue = 0.716"] ;
186 -> 188 ;
189 [label="mse = -0.0\nsamples = 1\nvalue = 0.636"] ;
179 -> 189 ;
190 [label="X[0] <= 2.556\nmse = 0.002\nsamples = 5\nvalue = 0.518"] ;
178 -> 190 ;
191 [label="mse = 0.0\nsamples = 1\nvalue = 0.593"] ;
190 -> 191 ;
192 [label="X[0] <= 2.63\nmse = 0.0\nsamples = 4\nvalue = 0.499"] ;
190 -> 192 ;
193 [label="X[0] <= 2.613\nmse = 0.0\nsamples = 3\nvalue = 0.507"] ;
192 -> 193 ;
194 [label="X[0] <= 2.607\nmse = 0.0\nsamples = 2\nvalue = 0.509"] ;
193 -> 194 ;
195 [label="mse = 0.0\nsamples = 1\nvalue = 0.511"] ;
194 -> 195 ;
196 [label="mse = -0.0\nsamples = 1\nvalue = 0.508"] ;
194 -> 196 ;
197 [label="mse = 0.0\nsamples = 1\nvalue = 0.502"] ;
193 -> 197 ;
198 [label="mse = 0.0\nsamples = 1\nvalue = 0.477"] ;
192 -> 198 ;
199 [label="X[0] <= 2.941\nmse = 0.013\nsamples = 29\nvalue = 0.21"] ;
1 -> 199 ;
200 [label="X[0] <= 2.789\nmse = 0.004\nsamples = 16\nvalue = 0.297"] ;
199 -> 200 ;
201 [label="X[0] <= 2.701\nmse = 0.001\nsamples = 3\nvalue = 0.413"] ;
200 -> 201 ;
202 [label="mse = 0.0\nsamples = 1\nvalue = 0.447"] ;
201 -> 202 ;
203 [label="X[0] <= 2.734\nmse = 0.0\nsamples = 2\nvalue = 0.396"] ;
201 -> 203 ;
204 [label="mse = 0.0\nsamples = 1\nvalue = 0.405"] ;
203 -> 204 ;
205 [label="mse = 0.0\nsamples = 1\nvalue = 0.387"] ;
203 -> 205 ;
206 [label="X[0] <= 2.866\nmse = 0.001\nsamples = 13\nvalue = 0.27"] ;
200 -> 206 ;
207 [label="X[0] <= 2.848\nmse = 0.0\nsamples = 7\nvalue = 0.291"] ;
206 -> 207 ;
208 [label="X[0] <= 2.837\nmse = 0.0\nsamples = 4\nvalue = 0.297"] ;
207 -> 208 ;
209 [label="mse = 0.0\nsamples = 1\nvalue = 0.304"] ;
208 -> 209 ;
210 [label="X[0] <= 2.844\nmse = 0.0\nsamples = 3\nvalue = 0.295"] ;
208 -> 210 ;
211 [label="X[0] <= 2.841\nmse = 0.0\nsamples = 2\nvalue = 0.296"] ;
210 -> 211 ;
212 [label="mse = 0.0\nsamples = 1\nvalue = 0.297"] ;
211 -> 212 ;
213 [label="mse = -0.0\nsamples = 1\nvalue = 0.295"] ;
211 -> 213 ;
214 [label="mse = 0.0\nsamples = 1\nvalue = 0.292"] ;
210 -> 214 ;
215 [label="X[0] <= 2.856\nmse = 0.0\nsamples = 3\nvalue = 0.284"] ;
207 -> 215 ;
216 [label="X[0] <= 2.85\nmse = 0.0\nsamples = 2\nvalue = 0.287"] ;
215 -> 216 ;
217 [label="mse = 0.0\nsamples = 1\nvalue = 0.288"] ;
216 -> 217 ;
218 [label="mse = 0.0\nsamples = 1\nvalue = 0.287"] ;
216 -> 218 ;
219 [label="mse = 0.0\nsamples = 1\nvalue = 0.277"] ;
215 -> 219 ;
220 [label="X[0] <= 2.896\nmse = 0.0\nsamples = 6\nvalue = 0.246"] ;
206 -> 220 ;
221 [label="X[0] <= 2.876\nmse = 0.0\nsamples = 4\nvalue = 0.259"] ;
220 -> 221 ;
222 [label="mse = 0.0\nsamples = 1\nvalue = 0.267"] ;
221 -> 222 ;
223 [label="X[0] <= 2.883\nmse = 0.0\nsamples = 3\nvalue = 0.256"] ;
221 -> 223 ;
224 [label="X[0] <= 2.88\nmse = 0.0\nsamples = 2\nvalue = 0.258"] ;
223 -> 224 ;
225 [label="mse = 0.0\nsamples = 1\nvalue = 0.259"] ;
224 -> 225 ;
226 [label="mse = 0.0\nsamples = 1\nvalue = 0.258"] ;
224 -> 226 ;
227 [label="mse = 0.0\nsamples = 1\nvalue = 0.253"] ;
223 -> 227 ;
228 [label="X[0] <= 2.919\nmse = 0.0\nsamples = 2\nvalue = 0.22"] ;
220 -> 228 ;
229 [label="mse = 0.0\nsamples = 1\nvalue = 0.233"] ;
228 -> 229 ;
230 [label="mse = 0.0\nsamples = 1\nvalue = 0.208"] ;
228 -> 230 ;
231 [label="X[0] <= 3.046\nmse = 0.003\nsamples = 13\nvalue = 0.102"] ;
199 -> 231 ;
232 [label="X[0] <= 2.987\nmse = 0.001\nsamples = 6\nvalue = 0.152"] ;
231 -> 232 ;
233 [label="X[0] <= 2.957\nmse = 0.0\nsamples = 3\nvalue = 0.186"] ;
232 -> 233 ;
234 [label="X[0] <= 2.952\nmse = 0.0\nsamples = 2\nvalue = 0.189"] ;
233 -> 234 ;
235 [label="mse = 0.0\nsamples = 1\nvalue = 0.191"] ;
234 -> 235 ;
236 [label="mse = 0.0\nsamples = 1\nvalue = 0.186"] ;
234 -> 236 ;
237 [label="mse = 0.0\nsamples = 1\nvalue = 0.18"] ;
233 -> 237 ;
238 [label="X[0] <= 3.019\nmse = 0.0\nsamples = 3\nvalue = 0.118"] ;
232 -> 238 ;
239 [label="mse = 0.0\nsamples = 1\nvalue = 0.127"] ;
238 -> 239 ;
240 [label="X[0] <= 3.028\nmse = 0.0\nsamples = 2\nvalue = 0.113"] ;
238 -> 240 ;
241 [label="mse = 0.0\nsamples = 1\nvalue = 0.117"] ;
240 -> 241 ;
242 [label="mse = 0.0\nsamples = 1\nvalue = 0.109"] ;
240 -> 242 ;
243 [label="X[0] <= 3.081\nmse = 0.0\nsamples = 7\nvalue = 0.059"] ;
231 -> 243 ;
244 [label="X[0] <= 3.065\nmse = 0.0\nsamples = 3\nvalue = 0.072"] ;
243 -> 244 ;
245 [label="mse = 0.0\nsamples = 1\nvalue = 0.081"] ;
244 -> 245 ;
246 [label="X[0] <= 3.074\nmse = 0.0\nsamples = 2\nvalue = 0.068"] ;
244 -> 246 ;
247 [label="mse = 0.0\nsamples = 1\nvalue = 0.072"] ;
246 -> 247 ;
248 [label="mse = 0.0\nsamples = 1\nvalue = 0.064"] ;
246 -> 248 ;
249 [label="X[0] <= 3.099\nmse = 0.0\nsamples = 4\nvalue = 0.049"] ;
243 -> 249 ;
250 [label="X[0] <= 3.086\nmse = 0.0\nsamples = 3\nvalue = 0.054"] ;
249 -> 250 ;
251 [label="mse = 0.0\nsamples = 1\nvalue = 0.057"] ;
250 -> 251 ;
252 [label="X[0] <= 3.089\nmse = 0.0\nsamples = 2\nvalue = 0.052"] ;
250 -> 252 ;
253 [label="mse = 0.0\nsamples = 1\nvalue = 0.053"] ;
252 -> 253 ;
254 [label="mse = 0.0\nsamples = 1\nvalue = 0.051"] ;
252 -> 254 ;
255 [label="mse = -0.0\nsamples = 1\nvalue = 0.034"] ;
249 -> 255 ;
256 [label="X[0] <= 3.784\nmse = 0.104\nsamples = 72\nvalue = -0.656"] ;
0 -> 256 [labeldistance=2.5, labelangle=-45, headlabel="False"] ;
257 [label="X[0] <= 3.436\nmse = 0.022\nsamples = 30\nvalue = -0.304"] ;
256 -> 257 ;
258 [label="X[0] <= 3.317\nmse = 0.004\nsamples = 13\nvalue = -0.153"] ;
257 -> 258 ;
259 [label="X[0] <= 3.245\nmse = 0.001\nsamples = 8\nvalue = -0.111"] ;
258 -> 259 ;
260 [label="X[0] <= 3.21\nmse = 0.0\nsamples = 3\nvalue = -0.075"] ;
259 -> 260 ;
261 [label="mse = 0.0\nsamples = 1\nvalue = -0.058"] ;
260 -> 261 ;
262 [label="X[0] <= 3.225\nmse = 0.0\nsamples = 2\nvalue = -0.083"] ;
260 -> 262 ;
263 [label="mse = 0.0\nsamples = 1\nvalue = -0.078"] ;
262 -> 263 ;
264 [label="mse = 0.0\nsamples = 1\nvalue = -0.088"] ;
262 -> 264 ;
265 [label="X[0] <= 3.274\nmse = 0.0\nsamples = 5\nvalue = -0.133"] ;
259 -> 265 ;
266 [label="X[0] <= 3.263\nmse = 0.0\nsamples = 3\nvalue = -0.122"] ;
265 -> 266 ;
267 [label="mse = 0.0\nsamples = 1\nvalue = -0.119"] ;
266 -> 267 ;
268 [label="X[0] <= 3.266\nmse = 0.0\nsamples = 2\nvalue = -0.124"] ;
266 -> 268 ;
269 [label="mse = 0.0\nsamples = 1\nvalue = -0.124"] ;
268 -> 269 ;
270 [label="mse = -0.0\nsamples = 1\nvalue = -0.124"] ;
268 -> 270 ;
271 [label="X[0] <= 3.291\nmse = 0.0\nsamples = 2\nvalue = -0.149"] ;
265 -> 271 ;
272 [label="mse = 0.0\nsamples = 1\nvalue = -0.14"] ;
271 -> 272 ;
273 [label="mse = 0.0\nsamples = 1\nvalue = -0.159"] ;
271 -> 273 ;
274 [label="X[0] <= 3.371\nmse = 0.001\nsamples = 5\nvalue = -0.221"] ;
258 -> 274 ;
275 [label="X[0] <= 3.345\nmse = 0.0\nsamples = 3\nvalue = -0.198"] ;
274 -> 275 ;
276 [label="X[0] <= 3.335\nmse = 0.0\nsamples = 2\nvalue = -0.193"] ;
275 -> 276 ;
277 [label="mse = 0.0\nsamples = 1\nvalue = -0.191"] ;
276 -> 277 ;
278 [label="mse = 0.0\nsamples = 1\nvalue = -0.194"] ;
276 -> 278 ;
279 [label="mse = 0.0\nsamples = 1\nvalue = -0.21"] ;
275 -> 279 ;
280 [label="X[0] <= 3.399\nmse = 0.0\nsamples = 2\nvalue = -0.255"] ;
274 -> 280 ;
281 [label="mse = 0.0\nsamples = 1\nvalue = -0.245"] ;
280 -> 281 ;
282 [label="mse = 0.0\nsamples = 1\nvalue = -0.264"] ;
280 -> 282 ;
283 [label="X[0] <= 3.547\nmse = 0.005\nsamples = 17\nvalue = -0.419"] ;
257 -> 283 ;
284 [label="X[0] <= 3.493\nmse = 0.0\nsamples = 7\nvalue = -0.343"] ;
283 -> 284 ;
285 [label="X[0] <= 3.475\nmse = 0.0\nsamples = 4\nvalue = -0.327"] ;
284 -> 285 ;
286 [label="X[0] <= 3.463\nmse = 0.0\nsamples = 2\nvalue = -0.315"] ;
285 -> 286 ;
287 [label="mse = 0.0\nsamples = 1\nvalue = -0.315"] ;
286 -> 287 ;
288 [label="mse = -0.0\nsamples = 1\nvalue = -0.316"] ;
286 -> 288 ;
289 [label="X[0] <= 3.488\nmse = 0.0\nsamples = 2\nvalue = -0.339"] ;
285 -> 289 ;
290 [label="mse = 0.0\nsamples = 1\nvalue = -0.339"] ;
289 -> 290 ;
291 [label="mse = -0.0\nsamples = 1\nvalue = -0.34"] ;
289 -> 291 ;
292 [label="X[0] <= 3.508\nmse = 0.0\nsamples = 3\nvalue = -0.363"] ;
284 -> 292 ;
293 [label="mse = 0.0\nsamples = 1\nvalue = -0.348"] ;
292 -> 293 ;
294 [label="X[0] <= 3.521\nmse = 0.0\nsamples = 2\nvalue = -0.37"] ;
292 -> 294 ;
295 [label="mse = 0.0\nsamples = 1\nvalue = -0.369"] ;
294 -> 295 ;
296 [label="mse = -0.0\nsamples = 1\nvalue = -0.371"] ;
294 -> 296 ;
297 [label="X[0] <= 3.638\nmse = 0.002\nsamples = 10\nvalue = -0.472"] ;
283 -> 297 ;
298 [label="X[0] <= 3.596\nmse = 0.0\nsamples = 5\nvalue = -0.436"] ;
297 -> 298 ;
299 [label="X[0] <= 3.579\nmse = 0.0\nsamples = 3\nvalue = -0.421"] ;
298 -> 299 ;
300 [label="X[0] <= 3.574\nmse = 0.0\nsamples = 2\nvalue = -0.419"] ;
299 -> 300 ;
301 [label="mse = 0.0\nsamples = 1\nvalue = -0.417"] ;
300 -> 301 ;
302 [label="mse = 0.0\nsamples = 1\nvalue = -0.421"] ;
300 -> 302 ;
303 [label="mse = 0.0\nsamples = 1\nvalue = -0.426"] ;
299 -> 303 ;
304 [label="X[0] <= 3.618\nmse = 0.0\nsamples = 2\nvalue = -0.459"] ;
298 -> 304 ;
305 [label="mse = 0.0\nsamples = 1\nvalue = -0.452"] ;
304 -> 305 ;
306 [label="mse = -0.0\nsamples = 1\nvalue = -0.466"] ;
304 -> 306 ;
307 [label="X[0] <= 3.663\nmse = 0.0\nsamples = 5\nvalue = -0.508"] ;
297 -> 307 ;
308 [label="X[0] <= 3.65\nmse = 0.0\nsamples = 2\nvalue = -0.487"] ;
307 -> 308 ;
309 [label="mse = 0.0\nsamples = 1\nvalue = -0.487"] ;
308 -> 309 ;
310 [label="mse = -0.0\nsamples = 1\nvalue = -0.487"] ;
308 -> 310 ;
311 [label="X[0] <= 3.686\nmse = 0.0\nsamples = 3\nvalue = -0.521"] ;
307 -> 311 ;
312 [label="mse = 0.0\nsamples = 1\nvalue = -0.509"] ;
311 -> 312 ;
313 [label="X[0] <= 3.697\nmse = 0.0\nsamples = 2\nvalue = -0.527"] ;
311 -> 313 ;
314 [label="mse = 0.0\nsamples = 1\nvalue = -0.527"] ;
313 -> 314 ;
315 [label="mse = -0.0\nsamples = 1\nvalue = -0.528"] ;
313 -> 315 ;
316 [label="X[0] <= 4.211\nmse = 0.011\nsamples = 42\nvalue = -0.908"] ;
256 -> 316 ;
317 [label="X[0] <= 4.013\nmse = 0.004\nsamples = 13\nvalue = -0.769"] ;
316 -> 317 ;
318 [label="X[0] <= 3.931\nmse = 0.001\nsamples = 6\nvalue = -0.709"] ;
317 -> 318 ;
319 [label="X[0] <= 3.881\nmse = 0.0\nsamples = 3\nvalue = -0.679"] ;
318 -> 319 ;
320 [label="mse = 0.0\nsamples = 1\nvalue = -0.667"] ;
319 -> 320 ;
321 [label="X[0] <= 3.897\nmse = 0.0\nsamples = 2\nvalue = -0.685"] ;
319 -> 321 ;
322 [label="mse = 0.0\nsamples = 1\nvalue = -0.681"] ;
321 -> 322 ;
323 [label="mse = 0.0\nsamples = 1\nvalue = -0.69"] ;
321 -> 323 ;
324 [label="X[0] <= 3.982\nmse = 0.0\nsamples = 3\nvalue = -0.74"] ;
318 -> 324 ;
325 [label="X[0] <= 3.964\nmse = 0.0\nsamples = 2\nvalue = -0.732"] ;
324 -> 325 ;
326 [label="mse = 0.0\nsamples = 1\nvalue = -0.729"] ;
325 -> 326 ;
327 [label="mse = -0.0\nsamples = 1\nvalue = -0.736"] ;
325 -> 327 ;
328 [label="mse = -0.0\nsamples = 1\nvalue = -0.754"] ;
324 -> 328 ;
329 [label="X[0] <= 4.087\nmse = 0.001\nsamples = 7\nvalue = -0.82"] ;
317 -> 329 ;
330 [label="X[0] <= 4.053\nmse = 0.0\nsamples = 3\nvalue = -0.786"] ;
329 -> 330 ;
331 [label="X[0] <= 4.034\nmse = 0.0\nsamples = 2\nvalue = -0.778"] ;
330 -> 331 ;
332 [label="mse = 0.0\nsamples = 1\nvalue = -0.777"] ;
331 -> 332 ;
333 [label="mse = -0.0\nsamples = 1\nvalue = -0.78"] ;
331 -> 333 ;
334 [label="mse = -0.0\nsamples = 1\nvalue = -0.8"] ;
330 -> 334 ;
335 [label="X[0] <= 4.125\nmse = 0.0\nsamples = 4\nvalue = -0.846"] ;
329 -> 335 ;
336 [label="mse = 0.0\nsamples = 1\nvalue = -0.821"] ;
335 -> 336 ;
337 [label="X[0] <= 4.176\nmse = 0.0\nsamples = 3\nvalue = -0.854"] ;
335 -> 337 ;
338 [label="X[0] <= 4.154\nmse = 0.0\nsamples = 2\nvalue = -0.848"] ;
337 -> 338 ;
339 [label="mse = 0.0\nsamples = 1\nvalue = -0.843"] ;
338 -> 339 ;
340 [label="mse = -0.0\nsamples = 1\nvalue = -0.853"] ;
338 -> 340 ;
341 [label="mse = 0.0\nsamples = 1\nvalue = -0.866"] ;
337 -> 341 ;
342 [label="X[0] <= 4.378\nmse = 0.001\nsamples = 29\nvalue = -0.97"] ;
316 -> 342 ;
343 [label="X[0] <= 4.305\nmse = 0.0\nsamples = 6\nvalue = -0.913"] ;
342 -> 343 ;
344 [label="X[0] <= 4.26\nmse = 0.0\nsamples = 3\nvalue = -0.895"] ;
343 -> 344 ;
345 [label="X[0] <= 4.236\nmse = 0.0\nsamples = 2\nvalue = -0.889"] ;
344 -> 345 ;
346 [label="mse = 0.0\nsamples = 1\nvalue = -0.887"] ;
345 -> 346 ;
347 [label="mse = -0.0\nsamples = 1\nvalue = -0.891"] ;
345 -> 347 ;
348 [label="mse = -0.0\nsamples = 1\nvalue = -0.908"] ;
344 -> 348 ;
349 [label="X[0] <= 4.345\nmse = 0.0\nsamples = 3\nvalue = -0.932"] ;
343 -> 349 ;
350 [label="X[0] <= 4.336\nmse = 0.0\nsamples = 2\nvalue = -0.93"] ;
349 -> 350 ;
351 [label="mse = 0.0\nsamples = 1\nvalue = -0.928"] ;
350 -> 351 ;
352 [label="mse = 0.0\nsamples = 1\nvalue = -0.932"] ;
350 -> 352 ;
353 [label="mse = 0.0\nsamples = 1\nvalue = -0.935"] ;
349 -> 353 ;
354 [label="X[0] <= 4.54\nmse = 0.0\nsamples = 23\nvalue = -0.985"] ;
342 -> 354 ;
355 [label="X[0] <= 4.434\nmse = 0.0\nsamples = 5\nvalue = -0.964"] ;
354 -> 355 ;
356 [label="X[0] <= 4.407\nmse = 0.0\nsamples = 2\nvalue = -0.954"] ;
355 -> 356 ;
357 [label="mse = 0.0\nsamples = 1\nvalue = -0.953"] ;
356 -> 357 ;
358 [label="mse = -0.0\nsamples = 1\nvalue = -0.954"] ;
356 -> 358 ;
359 [label="X[0] <= 4.471\nmse = 0.0\nsamples = 3\nvalue = -0.97"] ;
355 -> 359 ;
360 [label="X[0] <= 4.459\nmse = 0.0\nsamples = 2\nvalue = -0.968"] ;
359 -> 360 ;
361 [label="mse = 0.0\nsamples = 1\nvalue = -0.968"] ;
360 -> 361 ;
362 [label="mse = 0.0\nsamples = 1\nvalue = -0.968"] ;
360 -> 362 ;
363 [label="mse = 0.0\nsamples = 1\nvalue = -0.974"] ;
359 -> 363 ;
364 [label="X[0] <= 4.848\nmse = 0.0\nsamples = 18\nvalue = -0.991"] ;
354 -> 364 ;
365 [label="X[0] <= 4.613\nmse = 0.0\nsamples = 12\nvalue = -0.998"] ;
364 -> 365 ;
366 [label="mse = 0.0\nsamples = 1\nvalue = -0.993"] ;
365 -> 366 ;
367 [label="X[0] <= 4.796\nmse = 0.0\nsamples = 11\nvalue = -0.998"] ;
365 -> 367 ;
368 [label="X[0] <= 4.659\nmse = 0.0\nsamples = 9\nvalue = -0.999"] ;
367 -> 368 ;
369 [label="X[0] <= 4.634\nmse = 0.0\nsamples = 3\nvalue = -0.997"] ;
368 -> 369 ;
370 [label="mse = 0.0\nsamples = 1\nvalue = -0.996"] ;
369 -> 370 ;
371 [label="X[0] <= 4.643\nmse = 0.0\nsamples = 2\nvalue = -0.998"] ;
369 -> 371 ;
372 [label="mse = 0.0\nsamples = 1\nvalue = -0.997"] ;
371 -> 372 ;
373 [label="mse = 0.0\nsamples = 1\nvalue = -0.998"] ;
371 -> 373 ;
374 [label="X[0] <= 4.744\nmse = 0.0\nsamples = 6\nvalue = -0.999"] ;
368 -> 374 ;
375 [label="X[0] <= 4.695\nmse = 0.0\nsamples = 4\nvalue = -1.0"] ;
374 -> 375 ;
376 [label="mse = 0.0\nsamples = 1\nvalue = -0.999"] ;
375 -> 376 ;
377 [label="X[0] <= 4.72\nmse = 0.0\nsamples = 3\nvalue = -1.0"] ;
375 -> 377 ;
378 [label="mse = 0.0\nsamples = 1\nvalue = -1.0"] ;
377 -> 378 ;
379 [label="X[0] <= 4.723\nmse = 0.0\nsamples = 2\nvalue = -1.0"] ;
377 -> 379 ;
380 [label="mse = 0.0\nsamples = 1\nvalue = -1.0"] ;
379 -> 380 ;
381 [label="mse = 0.0\nsamples = 1\nvalue = -1.0"] ;
379 -> 381 ;
382 [label="X[0] <= 4.772\nmse = 0.0\nsamples = 2\nvalue = -0.998"] ;
374 -> 382 ;
383 [label="mse = 0.0\nsamples = 1\nvalue = -0.999"] ;
382 -> 383 ;
384 [label="mse = 0.0\nsamples = 1\nvalue = -0.998"] ;
382 -> 384 ;
385 [label="X[0] <= 4.815\nmse = 0.0\nsamples = 2\nvalue = -0.995"] ;
367 -> 385 ;
386 [label="mse = 0.0\nsamples = 1\nvalue = -0.995"] ;
385 -> 386 ;
387 [label="mse = -0.0\nsamples = 1\nvalue = -0.994"] ;
385 -> 387 ;
388 [label="X[0] <= 4.917\nmse = 0.0\nsamples = 6\nvalue = -0.979"] ;
364 -> 388 ;
389 [label="X[0] <= 4.888\nmse = 0.0\nsamples = 4\nvalue = -0.985"] ;
388 -> 389 ;
390 [label="X[0] <= 4.88\nmse = 0.0\nsamples = 3\nvalue = -0.986"] ;
389 -> 390 ;
391 [label="mse = 0.0\nsamples = 1\nvalue = -0.986"] ;
390 -> 391 ;
392 [label="X[0] <= 4.883\nmse = 0.0\nsamples = 2\nvalue = -0.985"] ;
390 -> 392 ;
393 [label="mse = 0.0\nsamples = 1\nvalue = -0.986"] ;
392 -> 393 ;
394 [label="mse = 0.0\nsamples = 1\nvalue = -0.985"] ;
392 -> 394 ;
395 [label="mse = -0.0\nsamples = 1\nvalue = -0.984"] ;
389 -> 395 ;
396 [label="X[0] <= 4.968\nmse = 0.0\nsamples = 2\nvalue = -0.967"] ;
388 -> 396 ;
397 [label="mse = 0.0\nsamples = 1\nvalue = -0.974"] ;
396 -> 397 ;
398 [label="mse = 0.0\nsamples = 1\nvalue = -0.961"] ;
396 -> 398 ;
}